3.953673690557479858e-02,1.013326346874237061e-01,-1.349375844001770020e+00,-3.096614480018615723e-01,1.608690857887268066e+00,-4.020577371120452881e-01,8.029763400554656982e-02,2.986877262592315674e-01,3.603771030902862549e-01,-9.432443380355834961e-01,-1.171158552169799805e+00,-7.308562994003295898e-01,2.717050611972808838e-01,-7.852217555046081543e-01,-3.264884948730468750e-01,-3.944326937198638916e-01,4.009430706501007080e-01,-1.068985462188720703e-02,6.712197661399841309e-01
7.293973565101623535e-01,-4.535230994224548340e-01,-8.500155061483383179e-02,2.134790867567062378e-01,-1.136908173561096191e+00,2.173017859458923340e-01,2.816902287304401398e-02,2.556074038147926331e-02,4.693033695220947266e-01,8.042964935302734375e-01,2.589799165725708008e-01,6.898961067199707031e-01,-2.747361361980438232e-01,1.893403530120849609e-01,4.558537304401397705e-01,3.693538606166839600e-01,-1.154656931757926941e-01,-8.541252613067626953e-01,-3.778951168060302734e-01
-1.506534218788146973e-01,-6.094726175069808960e-02,1.052750572562217712e-01,-1.748491637408733368e-02,-4.300419688224792480e-01,-1.375875174999237061e-01,-4.406816139817237854e-02,-5.418967604637145996e-01,4.295399188995361328e-01,-7.791810035705566406e-01,-1.746566593647003174e-01,-7.052792906761169434e-01,2.071911394596099854e-01,1.663570284843444824e+00,-1.612339913845062256e-01,1.728587150573730469e+00,-1.697597801685333252e-01,1.248623371124267578e+00,6.088649630546569824e-01
-2.054324001073837280e-01,-4.090751335024833679e-02,5.358077287673950195e-01,-1.348135113716125488e+00,7.443406581878662109e-01,1.227602213621139526e-01,-1.640892326831817627e-01,2.803568840026855469e-01,-3.877485990524291992e-01,2.179566025733947754e-01,-2.247089892625808716e-01,-2.868666648864746094e-01,-1.106071546673774719e-01,2.845305204391479492e-01,4.516487717628479004e-01,4.013510048389434814e-02,-1.089434847235679626e-01,5.136097073554992676e-01,-5.834096074104309082e-01
1.696908324956893921e-01,3.782541155815124512e-01,-3.741293251514434814e-01,4.013044536113739014e-01,6.054625511169433594e-01,-1.883582919836044312e-01,2.139648646116256714e-01,1.344930678606033325e-01,-1.582357585430145264e-01,-4.550431072711944580e-01,-3.108075559139251709e-01,-4.013017714023590088e-01,3.997473716735839844e-01,-7.575914263725280762e-01,-4.193043410778045654e-01,-5.804271697998046875e-01,-1.254728287458419800e-01,-1.797697544097900391e-01,-8.000686764717102051e-02
3.923343867063522339e-02,2.944611608982086182e-01,7.440578937530517578e-01,-3.814707994461059570e-01,8.284294009208679199e-01,2.013404965400695801e-01,-1.126849651336669922e-01,-9.594813920557498932e-03,-1.524039864540100098e+00,-4.244573414325714111e-01,-7.814487218856811523e-01,1.979726105928421021e-01,7.898821234703063965e-01,-2.114017158746719360e-01,2.370605245232582092e-02,-5.750359892845153809e-01,-2.847930975258350372e-02,1.932876557111740112e-01,-3.368709981441497803e-01
5.854730680584907532e-02,7.809253036975860596e-02,1.829065084457397461e-01,3.359716758131980896e-02,-1.372081339359283447e-01,-1.175849512219429016e-01,9.247535467147827148e-02,2.424366921186447144e-01,-5.465484410524368286e-02,-1.400082856416702271e-01,3.483816683292388916e-01,2.714557386934757233e-02,1.937525570392608643e-01,4.056739434599876404e-02,-1.969722807407379150e-01,6.330353766679763794e-02,-7.071590982377529144e-03,6.837883591651916504e-02,1.898033618927001953e-01
-8.974908292293548584e-02,4.852936789393424988e-02,-1.843648217618465424e-02,-1.024473831057548523e-01,1.389571875333786011e-01,3.418149426579475403e-02,-1.205197423696517944e-01,-1.224795803427696228e-01,3.374074399471282959e-01,2.586968801915645599e-02,7.928101718425750732e-02,-7.655197381973266602e-02,9.340504556894302368e-02,1.739907413721084595e-01,-3.348608613014221191e-01,-2.807181477546691895e-01,1.793359369039535522e-01,4.515641555190086365e-02,-3.283783420920372009e-02
1.069814920425415039e+00,-1.470150053501129150e-01,-1.114075541496276855e+00,-7.727184295654296875e-01,8.062302470207214355e-01,-9.717756509780883789e-02,-1.988172680139541626e-01,9.461220353841781616e-02,7.461537122726440430e-01,-1.190081000328063965e+00,1.652233481407165527e+00,-4.895212650299072266e-01,-1.780850410461425781e+00,6.719739437103271484e-01,-6.273103356361389160e-01,5.556004643440246582e-01,2.680214121937751770e-02,-1.358340144157409668e+00,-8.488795757293701172e-01
4.541446268558502197e-01,-2.748722732067108154e-01,1.587702333927154541e-01,-4.805196225643157959e-01,-1.930106043815612793e+00,-1.388880759477615356e-01,1.518363356590270996e-01,-2.622524835169315338e-02,1.523081064224243164e-01,3.823369443416595459e-01,5.640107672661542892e-03,7.068256735801696777e-01,-2.237291634082794189e-01,-1.384094506502151489e-01,4.028886556625366211e-01,2.921471893787384033e-01,-1.187453195452690125e-01,8.659242838621139526e-02,1.820158213376998901e-01
-1.075964942574501038e-01,-1.537505388259887695e-01,1.618413813412189484e-02,1.098690852522850037e-01,-7.506162673234939575e-02,-4.171665906906127930e-01,-2.182292938232421875e-01,8.859232813119888306e-02,-2.145877480506896973e-01,2.826362289488315582e-02,2.265049517154693604e-01,2.279309183359146118e-02,-2.489388883113861084e-01,-3.129344880580902100e-01,-2.243735045194625854e-01,-1.368343234062194824e-01,1.001545190811157227e-01,1.832792460918426514e-01,-1.543001830577850342e-01
-2.690964639186859131e-01,-2.054346948862075806e-01,-4.389355778694152832e-01,-9.897939562797546387e-01,6.090619564056396484e-01,2.511067688465118408e-01,-2.177293151617050171e-01,2.772190421819686890e-02,-4.267439544200897217e-01,8.923209309577941895e-01,-6.837043762207031250e-01,2.577400393784046173e-02,-1.851750612258911133e-01,-6.000469923019409180e-01,2.857927680015563965e-01,-1.607377052307128906e+00,-4.699401184916496277e-02,2.973878979682922363e-01,-2.076422274112701416e-01
-6.504356861114501953e-01,-4.405088839121162891e-04,1.212216615676879883e+00,-1.727841347455978394e-01,-7.710787057876586914e-01,-9.197316318750381470e-02,1.206521913409233093e-01,-9.616516530513763428e-02,-1.315773367881774902e+00,-1.111093044281005859e+00,-5.142117142677307129e-01,2.911855578422546387e-01,3.029261529445648193e-01,5.711980462074279785e-01,1.023452281951904297e-01,1.238722503185272217e-01,-1.649004966020584106e-01,3.596145808696746826e-01,-1.093507334589958191e-01
6.026322245597839355e-01,-5.318962335586547852e-01,5.239186882972717285e-01,-1.824447154998779297e+00,7.547985315322875977e-01,-5.963534116744995117e-01,1.518221646547317505e-01,-1.365871280431747437e-01,1.457887794822454453e-02,9.636753797531127930e-01,-6.860509514808654785e-01,-6.901949644088745117e-01,5.838703513145446777e-01,4.335877001285552979e-01,1.176584511995315552e-01,-3.470121324062347412e-01,4.243079125881195068e-01,2.902078330516815186e-01,-4.959517419338226318e-01
-2.948293983936309814e-01,-5.694846808910369873e-02,-5.536230653524398804e-02,-1.158601403236389160e+00,-9.945548772811889648e-01,-2.801246941089630127e-01,-1.539611220359802246e-01,-4.349324405193328857e-01,-2.302449792623519897e-01,-3.049465715885162354e-01,9.701386690139770508e-01,-4.475277364253997803e-01,4.764049649238586426e-01,1.113739013671875000e+00,7.645036578178405762e-01,9.369115829467773438e-01,-1.803535819053649902e-01,9.504448771476745605e-01,5.562292337417602539e-01
-2.960726059973239899e-02,3.198626339435577393e-01,8.481254428625106812e-02,-3.114139735698699951e-01,1.974294185638427734e-01,-7.714020460844039917e-02,2.269067801535129547e-02,5.296006426215171814e-02,2.236137986183166504e-01,-2.673752903938293457e-01,5.211849138140678406e-02,1.494487822055816650e-01,2.674252092838287354e-01,-1.198990494012832642e-01,-6.105505675077438354e-02,-3.412283211946487427e-02,-4.520200937986373901e-02,-2.929870188236236572e-01,-2.743480503559112549e-01
-8.522358536720275879e-01,2.637988626956939697e-01,3.440943956375122070e-01,5.063809156417846680e-01,-5.153287649154663086e-01,9.942069053649902344e-01,-4.964284133166074753e-03,5.985212922096252441e-01,-2.171267509460449219e+00,-5.971131920814514160e-01,3.942870795726776123e-01,-9.684915654361248016e-03,7.363507151603698730e-01,9.888156652450561523e-01,4.373048543930053711e-01,7.274869084358215332e-01,-1.449508816003799438e-01,-1.204198375344276428e-01,4.385068416595458984e-01
2.019424587488174438e-01,-1.668621003627777100e-01,-1.463753581047058105e-01,1.781552135944366455e-01,1.705989688634872437e-01,-6.268081068992614746e-02,-6.857394427061080933e-02,1.654132902622222900e-01,-3.839375451207160950e-02,2.878439053893089294e-02,8.281334489583969116e-02,6.532262079417705536e-03,2.742929756641387939e-01,-1.014612242579460144e-01,-1.211393252015113831e-01,-1.004893258213996887e-01,1.560622006654739380e-01,2.098440229892730713e-01,-3.263278007507324219e-01
-1.405430585145950317e-02,1.708308607339859009e-01,-3.072352409362792969e-01,3.099591284990310669e-02,-1.276662200689315796e-02,-1.150017008185386658e-01,2.340252138674259186e-02,3.445263504981994629e-01,2.088437229394912720e-01,-2.999590337276458740e-01,-5.628060176968574524e-02,3.195694833993911743e-02,-2.619509398937225342e-01,2.082396149635314941e-01,-2.406878583133220673e-02,-3.586856648325920105e-02,2.813250124454498291e-01,-2.013747692108154297e-01,-1.654103249311447144e-01
-6.510079652070999146e-02,2.143279016017913818e-01,1.225523799657821655e-01,-2.679025232791900635e-01,1.022852659225463867e+00,2.911141216754913330e-01,-4.533383622765541077e-02,8.227188885211944580e-02,-5.747556090354919434e-01,-5.800956860184669495e-02,-6.825146675109863281e-01,7.559270262718200684e-01,3.163096308708190918e-01,-5.937783122062683105e-01,-5.103250145912170410e-01,-3.148361742496490479e-01,-1.079262271523475647e-01,-7.256990671157836914e-01,3.617402315139770508e-01
-1.682082116603851318e-01,-1.171403899788856506e-01,-6.106019020080566406e-01,9.786836057901382446e-02,8.276982903480529785e-01,-2.757861465215682983e-02,-9.487631916999816895e-02,9.491135179996490479e-02,-1.418327689170837402e+00,-5.724416375160217285e-01,-1.905897557735443115e-01,1.857312768697738647e-01,4.129969477653503418e-01,-3.629242181777954102e-01,-6.575309634208679199e-01,-6.229835748672485352e-01,-2.124130874872207642e-01,-7.907837629318237305e-01,-1.808726042509078979e-01
3.276198506355285645e-01,1.373331546783447266e-01,-5.297844111919403076e-02,3.599501252174377441e-01,2.937957346439361572e-01,3.076478838920593262e-03,1.496317386627197266e-01,-1.713477224111557007e-01,-3.099064901471138000e-02,6.783381849527359009e-02,-5.661510676145553589e-02,-1.714393943548202515e-01,1.903688013553619385e-01,-2.163071632385253906e-01,2.259750813245773315e-01,-2.283116728067398071e-01,-7.024811953306198120e-02,1.397959440946578979e-01,2.035020738840103149e-01
-2.664090991020202637e-01,-9.058357030153274536e-02,-6.811551749706268311e-02,4.201221764087677002e-01,-7.098697125911712646e-02,-1.411830037832260132e-01,-8.930186927318572998e-02,9.561440348625183105e-02,-7.838667631149291992e-01,-2.069645673036575317e-01,-4.760511964559555054e-02,-5.710896253585815430e-01,-8.132121525704860687e-03,-1.825352907180786133e-01,-1.605223566293716431e-01,-1.784345507621765137e-01,7.397282868623733521e-02,-3.897422552108764648e-01,-1.903349757194519043e-01
4.669184610247612000e-02,-1.397168613038957119e-03,6.066649034619331360e-02,2.530803978443145752e-01,4.753625392913818359e-02,-1.333238482475280762e-01,-1.972672641277313232e-01,-2.836739122867584229e-01,1.080739498138427734e-01,-1.138865575194358826e-01,5.016528069972991943e-02,3.814414516091346741e-02,-4.445408657193183899e-02,3.420684114098548889e-02,-2.300837039947509766e-01,-1.950153261423110962e-01,2.976123094558715820e-01,-1.152689307928085327e-01,-7.072779536247253418e-02
3.132873401045799255e-02,-2.483471930027008057e-01,-3.471763134002685547e-01,5.558852553367614746e-01,4.418317675590515137e-01,-7.673706114292144775e-02,-6.225121021270751953e-02,3.452627658843994141e-01,-4.023120105266571045e-01,-4.056313633918762207e-01,3.846441507339477539e-01,-3.739993274211883545e-01,-2.130630910396575928e-01,-2.886018455028533936e-01,-1.579418927431106567e-01,-1.236608847975730896e-01,-1.216746121644973755e-02,-4.495245963335037231e-02,-1.025794371962547302e-01
1.735398620367050171e-01,1.005813106894493103e-01,6.458529233932495117e-01,9.509820491075515747e-02,-1.108734961599111557e-02,1.139088273048400879e-01,2.220819890499114990e-01,2.465565204620361328e-01,-1.063833683729171753e-01,1.168635115027427673e-01,-6.348556280136108398e-02,1.212472617626190186e-01,-7.858735918998718262e-01,7.674335241317749023e-01,4.508243873715400696e-02,6.710360199213027954e-02,-2.503390237689018250e-02,-1.345306485891342163e-01,-2.099356949329376221e-01
9.537015557289123535e-01,-2.927049696445465088e-01,1.843396574258804321e-02,-3.159154355525970459e-01,-4.760681092739105225e-01,-6.220723986625671387e-01,-1.766877919435501099e-01,-3.627908527851104736e-01,1.447169780731201172e+00,-1.879136711359024048e-01,6.415913701057434082e-01,7.049912214279174805e-01,4.674317315220832825e-02,-1.041452169418334961e+00,-6.694127917289733887e-01,6.098939180374145508e-01,-8.101128041744232178e-02,-9.019610881805419922e-01,2.588860988616943359e-01
-7.896857708692550659e-02,8.167654871940612793e-01,-3.720095008611679077e-02,6.219851970672607422e-02,-2.611235082149505615e-01,-9.041224718093872070e-01,-1.163148730993270874e-01,2.704166471958160400e-01,8.935391902923583984e-01,-1.080744266510009766e-01,-1.273915290832519531e+00,1.248881593346595764e-01,-1.644593358039855957e+00,-3.229307532310485840e-01,-1.331440806388854980e-01,7.305749654769897461e-01,-1.941761255264282227e+00,-5.374323129653930664e-01,-6.390045881271362305e-01
1.496143043041229248e-01,-5.712887272238731384e-02,3.080377280712127686e-01,2.430683821439743042e-01,-3.305839002132415771e-01,-4.784266650676727295e-01,-1.238517463207244873e-01,3.106039948761463165e-02,-9.905424714088439941e-02,-1.712432801723480225e-01,8.151213824748992920e-02,1.242352724075317383e-01,1.965342648327350616e-02,2.735240459442138672e-01,-4.227457642555236816e-01,1.264210604131221771e-02,-1.412130296230316162e-01,-2.410077601671218872e-01,1.862634271383285522e-01
